-165645.209410624,-180530.671454737,-165645.211339811,-165645.212304555,-165645.213269398,-165645.214234341,-165645.215199384,-165645.216164527,-165645.217129771,-165645.218095114,-165645.219060557,-165645.2200261,-165645.220991743,-165645.221957486,-165645.222923329,-165645.223889272,-165645.224855315,-165645.225821459,-165645.226787702,-165645.227754046,-165645.22872049,-165645.229687034,-165645.230653678,-165645.231620422,-165645.232587267,-165645.233554212,-165645.234521257,-165645.235488402,-165645.236455648,-165645.237422994,-165645.23839044,-165645.239357986,-165645.240325633,-165645.241293381,-165645.242261229,-165645.243229177,-165645.244197225,-165645.245165374,-165645.246133624,-165645.247101974,-165645.248070424,-165645.249038975,-165645.250007627,-165645.250976379,-165645.251945231,-165645.252914184,-165645.253883238,-165645.254852392,-165645.255821647,-165645.256791003,-165645.257760459,-165645.258730016,-165645.259699674,-165645.260669433,-165645.261639292,-165645.262609252,-165645.263579312,-165645.264549474,-165645.265519736,-165645.266490099,-165645.267460563,-165645.268431128,-165645.269401793,-165645.27037256,-165645.271343427,-165645.272314395,-165645.273285465,-165645.274256635,-165645.275227906,-165645.276199278,-165645.277170751,-165645.278142325,-165645.279114001,-165645.280085777,-165645.281057654,-165645.282029633,-165645.283001712,-165645.283973893,-165645.284946175,-165645.285918558,-165645.286891042,-165645.287863627,-165645.288836314,-165645.289809101,-165645.29078199,-165645.29175498,-165645.292728072,-165645.293701265,-165645.294674559,-165645.295647954,-165645.296621451,-165645.297595049,-165645.298568749,-165645.29954255,-165645.300516452,-165645.301490456,-165645.302464561,-165645.303438767,-165645.304413076,-165645.305387485,-165645.306361996,-165645.307336609,-165645.308311323
-180530.67131472,-155611.784820667,-180530.671594882,-180530.671735156,-180530.671875558,-180530.672016088,-180530.672156746,-180530.672297532,-180530.672438447,-180530.67257949,-180530.672720661,-180530.67286196,-180530.673003388,-180530.673144943,-180530.673286627,-180530.67342844,-180530.67357038,-180530.673712449,-180530.673854646,-180530.673996971,-180530.674139424,-180530.674282006,-180530.674424716,-180530.674567554,-180530.674710521,-180530.674853616,-180530.674996839,-180530.67514019,-180530.675283669,-180530.675427277,-180530.675571013,-180530.675714878,-180530.67585887,-180530.676002991,-180530.676147241,-180530.676291618,-180530.676436124,-180530.676580758,-180530.676725521,-180530.676870411,-180530.67701543,-180530.677160578,-180530.677305853,-180530.677451257,-180530.677596789,-180530.67774245,-180530.677888239,-180530.678034156,-180530.678180202,-180530.678326375,-180530.678472678,-180530.678619108,-180530.678765667,-180530.678912354,-180530.67905917,-180530.679206113,-180530.679353186,-180530.679500386,-180530.679647715,-180530.679795172,-180530.679942758,-180530.680090472,-180530.680238314,-180530.680386284,-180530.680534383,-180530.680682611,-180530.680830967,-180530.680979451,-180530.681128063,-180530.681276804,-180530.681425673,-155611.613771953,-180530.681723797,-155611.608886301,-155611.606443505,-155611.604000729,-155611.601557973,-155611.599115236,-155611.596672519,-155611.594229822,-155611.591787145,-155611.589344488,-155611.586901851,-155611.584459233,-155611.582016635,-155611.579574057,-155611.577131499,-155611.57468896,-155611.572246442,-155611.569803942,-155611.567361463,-155611.564919003,-155611.562476563,-155611.560034143,-155611.557591742,-155611.555149361,-180530.685341339,-180530.685493676,-155611.547822336,-155611.545380033,-155611.54293775,-180530.686104305,-180530.686257283
-155611.787264947,168859.283519875,-155611.782376407,-155611.779932169,-155611.77748795,-155611.775043753,-155611.772599576,-155611.77015542,-155611.767711285,-155611.765267171,-155611.762823077,-155611.760379003,-155611.757934951,-155611.755490919,-155611.753046907,-155611.750602917,-155611.748158946,-155611.745714997,-155611.743271068,-155611.740827159,-155611.738383271,-155611.735939404,-155611.733495557,-155611.731051731,-155611.728607925,-155611.72616414,-155611.723720375,-155611.72127663,-155611.718832907,-155611.716389203,-155611.71394552,-155611.711501857,-155611.709058215,-155611.706614593,-155611.704170992,-155611.701727411,-155611.69928385,-155611.696840309,-155611.694396789,-155611.691953289,-155611.68950981,-155611.687066351,-155611.684622912,-155611.682179493,-155611.679736095,-155611.677292717,-155611.674849359,-155611.672406021,-155611.669962704,-155611.667519407,-155611.66507613,-155611.662632873,-155611.660189636,-155611.657746419,-155611.655303223,-155611.652860047,-155611.65041689,-155611.647973754,-155611.645530638,-155611.643087543,-155611.640644467,-155611.638201411,-155611.635758375,-155611.633315359,-155611.630872364,-155611.628429388,-155611.625986432,-155611.623543497,-155611.621100581,-155611.618657685,-155611.616214809,168859.386398472,-155611.611329117,168859.389331927,168859.390798531,168859.392265053,168859.393731493,168859.39519785,168859.396664125,168859.398130317,168859.399596428,168859.401062456,168859.402528401,168859.403994265,168859.405460046,168859.406925744,139376.859554109,168859.409856895,168859.411322347,168859.412787717,168859.414253004,139376.857587916,168859.417183332,168859.418648373,139376.85640603,168859.421578208,-155611.552707,-155611.550264658,168859.425972342,168859.42743689,168859.428901355,-155611.540495487,-155611.538053243
168859.282047252,-77366.6944260414,168859.284992415,168859.286464872,168859.287937247,168859.28940954,168859.290881749,168859.292353877,168859.293825921,168859.295297883,168859.296769763,168859.29824156,168859.299713275,168859.301184907,168859.302656456,168859.304127923,168859.305599308,168859.30707061,168859.308541829,168859.310012966,168859.31148402,168859.312954992,168859.314425882,168859.315896688,168859.317367413,168859.318838055,168859.320308614,168859.321779091,168859.323249486,168859.324719798,168859.326190027,168859.327660174,168859.329130239,168859.330600221,168859.332070121,168859.333539938,168859.335009673,168859.336479325,168859.337948895,168859.339418382,168859.340887788,168859.34235711,168859.34382635,168859.345295508,168859.346764583,168859.348233576,168859.349702487,168859.351171315,168859.35264006,168859.354108723,168859.355577304,168859.357045803,168859.358514219,168859.359982552,168859.361450804,168859.362918972,168859.364387059,168859.365855063,168859.367322985,168859.368790824,168859.370258581,168859.371726256,168859.373193848,168859.374661358,168859.376128785,168859.37759613,168859.379063393,168859.380530574,168859.381997672,168859.383464688,168859.384931621,-77366.5552982716,168859.387865241,-77366.5513237327,-77366.5493364731,139376.86386383,139376.863472941,-77366.5433747327,-77366.5413874987,-77366.539400271,-77366.5374130496,139376.861515784,139376.861123811,139376.860731657,139376.860339322,139376.859946806,-190445.361606118,139376.859161232,139376.858768174,139376.858374935,139376.857981516,-190445.358967241,139376.857194135,139376.856800173,-190445.357383983,139376.856011707,168859.423043001,-77366.5036312051,-77366.5016440896,-77366.4996569796,139376.854037377,-77366.4956827759,139376.85324638
-77366.6964138821,139376.892288528,-77366.69243821,-77366.6904503881,-77366.6884625754,-77366.6864747721,-77366.684486978,-77366.6824991931,-77366.6805114174,-77366.6785236508,-77366.6765358934,-77366.6745481449,-77366.6725604055,-77366.670572675,-77366.6685849534,-77366.6665972408,-77366.664609537,-77366.662621842,-77366.6606341557,-77366.6586464782,-77366.6566588094,-77366.6546711492,-77366.6526834976,-77366.6506958546,-77366.6487082201,-77366.6467205941,-77366.6447329765,-77366.6427453674,-77366.6407577666,-77366.6387701741,-77366.6367825899,-77366.6347950139,-77366.6328074462,-77366.6308198866,-77366.6288323351,-77366.6268447917,-77366.6248572564,-77366.622869729,-77366.6208822096,-77366.6188946982,-77366.6169071946,-77366.6149196988,-77366.6129322109,-77366.6109447307,-77366.6089572582,-77366.6069697934,-77366.6049823363,-77366.6029948868,-77366.6010074448,139376.873963538,-77366.5970325833,139376.873190972,-77366.5930577515,-77366.5910703467,-77366.5890829492,-77366.5870955589,-77366.5851081759,-77366.5831208001,-77366.5811334314,-77366.5791460699,-77366.5771587154,-77366.575171368,-77366.5731840275,-77366.571196694,-77366.5692093675,-77366.5672220478,-77366.5652347349,-77366.5632474288,-77366.5612601295,-77366.5592728369,-77366.5572855509,139376.86542558,-77366.5533109989,139376.864645066,139376.864254539,-190445.367412149,-190445.366884299,139376.863081871,139376.862690621,139376.862299189,139376.861907577,-190445.364245138,-190445.363717323,-190445.363189513,-190445.362661709,-190445.362133911,-81772.3333740449,-190445.361078332,-190445.36055055,-190445.360022775,-190445.359495005,-81772.307480645,-190445.358439483,-190445.35791173,-81772.2919438265,-190445.356856242,139376.855617202,139376.855222517,139376.854827651,139376.854432605,-190445.354217621,139376.853641969,-190445.353162212
-190445.407017104,-81772.7733118135,139376.891910997,139376.891533285,-190445.404904029,-190445.404375775,139376.890399069,139376.890020636,139376.889642023,139376.88926323,139376.888884256,139376.888505102,139376.888125767,139376.887746252,139376.887366557,139376.886986681,139376.886606625,139376.886226389,139376.885845972,139376.885465375,139376.885084597,139376.884703639,139376.8843225,139376.883941181,139376.883559682,139376.883178002,139376.882796141,139376.8824141,139376.882031879,139376.881649478,139376.881266895,139376.880884133,139376.88050119,139376.880118066,139376.879734762,139376.879351277,139376.878967612,139376.878583767,139376.87819974,139376.877815534,139376.877431147,139376.877046579,139376.876661831,139376.876276902,139376.875891793,139376.875506503,139376.875121033,139376.874735382,139376.87434955,-190445.381138233,139376.873577346,-190445.380082243,139376.872804419,139376.872417684,139376.872030769,139376.871643674,139376.871256398,139376.870868941,139376.870481303,139376.870093486,139376.869705487,139376.869317308,139376.868928948,139376.868540407,139376.868151686,139376.867762784,139376.867373702,139376.866984439,139376.866594995,139376.866205371,139376.865815566,-190445.369523603,139376.865035414,-190445.368467865,-190445.367940004,-81772.3903338062,-81772.3851559713,-190445.366356456,-190445.365828618,-190445.365300785,-190445.364772959,-81772.359265821,-81772.3540875957,-81772.3489093055,-81772.3437309503,-81772.33855253,34194.5228915036,-81772.3281954947,-81772.3230168797,-81772.3178381997,-81772.3126594548,34194.5242548027,-81772.3023017704,-81772.2971228309,34194.5250727822,-81772.2867647573,-190445.356328506,-190445.355800776,-190445.355273052,-190445.354745333,-81772.2608684397,-190445.353689913,-81772.2505094594
-81772.7784847202,34194.499715419,-190445.405960555,-190445.405432289,34194.5005333984,34194.5008060582,-190445.403847526,-190445.403319283,-190445.402791045,-190445.402262814,-190445.401734588,-190445.401206368,-190445.400678153,-190445.400149944,-190445.399621741,-190445.399093544,-190445.398565352,-190445.398037167,-190445.397508986,-190445.396980812,-190445.396452643,-190445.39592448,-190445.395396323,-190445.394868171,-190445.394340025,-190445.393811885,-190445.39328375,-190445.392755622,-190445.392227499,-190445.391699381,-190445.39117127,-190445.390643164,-190445.390115063,-190445.389586969,-190445.38905888,-190445.388530797,-190445.38800272,-190445.387474648,-190445.386946582,-190445.386418522,-190445.385890467,-190445.385362418,-190445.384834375,-190445.384306338,-190445.383778306,-190445.38325028,-190445.382722259,-190445.382194245,-190445.381666236,-81772.5249346081,-190445.380610235,-81772.5145822694,-190445.379554257,-190445.379026277,-190445.378498302,-190445.377970333,-190445.37744237,-190445.376914412,-190445.37638646,-190445.375858514,-190445.375330573,-190445.374802638,-190445.374274709,-190445.373746786,-190445.373218868,-190445.372690956,-190445.37216305,-190445.371635149,-190445.371107254,-190445.370579365,-190445.370051481,-81772.4110444941,-190445.368995731,-81772.4006892804,-81772.3955115759,34194.5198922456,34194.5201649054,-81772.3799780714,-81772.3748001064,-81772.3696220763,-81772.3644439812,34194.5215282045,34194.5218008644,34194.5220735242,34194.522346184,34194.5226188438,85924.3344085894,34194.5231641635,34194.5234368233,34194.5237094831,34194.5239821429,85924.3384984911,34194.5245274626,34194.5248001224,85924.3409524321,34194.525345442,-81772.2815856234,-81772.2764064246,-81772.2712271611,-81772.2660478327,34194.5267087411,-81772.2556889819,34194.5272540608
34194.4994427591,85924.2648802595,-81772.7681388402,-81772.7629658005,85924.2673342006,85924.2681521809,34194.501078718,34194.5013513779,34194.5016240377,34194.5018966975,34194.5021693573,34194.5024420172,-81772.7164054633,34194.5029873368,34194.5032599966,34194.5035326564,-81772.6957102605,-81772.6905362948,34194.5043506359,34194.5046232957,-81772.6750140011,-81772.669839771,-81772.6646654752,-81772.6594911135,-81772.6543166856,-81772.6491421921,-81772.6439676325,-81772.638793007,-81772.6336183157,34194.5073498939,-81772.6232687355,-81772.6180938466,-81772.612918892,-81772.6077438715,-81772.6025687853,-81772.5973936333,-81772.5922184156,-81772.5870431321,-81772.5818677824,-81772.576692367,-81772.5715168864,-81772.5663413402,-81772.5611657283,-81772.5559900508,-81772.5508143076,-81772.5456384989,-81772.5404626245,-81772.5352866846,-81772.5301106791,34194.5128030903,-81772.5197584715,34194.5133484099,-81772.5094060018,-81772.5042296688,-81772.4990532703,-81772.4938768063,-81772.4887002769,-81772.483523682,-81772.4783470218,-81772.4731702962,-81772.4679935052,-81772.4628166488,-81772.4576397271,-81772.4524627401,-81772.4472856877,-81772.4421085701,-81772.4369313872,-81772.431754139,-81772.4265768256,-81772.421399447,-81772.4162220031,34194.5188016063,-81772.4058669198,34194.519346926,34194.5196195858,85924.3254108056,85924.3262287859,34194.5204375653,34194.5207102251,34194.5209828849,34194.5212555447,85924.3303186877,85924.331136668,85924.3319546484,85924.3327726287,85924.3335906091,12311.9498469237,85924.3352265697,85924.3360445501,85924.3368625304,85924.3376805108,12311.9512102212,85924.3393164715,85924.3401344518,12311.9520281997,85924.3417704125,34194.5256181018,34194.5258907617,34194.5261634215,34194.5264360813,85924.3458603142,34194.5269814009,85924.3474962749
85924.2640622791,12311.9266708662,34194.4999880788,34194.5002607386,12311.9274888447,12311.9277615042,85924.2689701613,85924.2697881416,85924.270606122,85924.2714241024,85924.2722420827,85924.2730600631,34194.502714677,85924.2746960238,85924.2755140042,85924.2763319845,34194.5038053163,34194.5040779761,85924.2787859256,85924.2796039059,34194.5048959555,34194.5051686153,34194.5054412752,34194.505713935,34194.5059865948,34194.5062592546,34194.5065319144,34194.5068045743,34194.5070772341,85924.2877837095,34194.5076225537,34194.5078952135,34194.5081678733,34194.5084405332,34194.508713193,34194.5089858528,34194.5092585126,34194.5095311724,34194.5098038323,34194.5100764921,34194.5103491519,34194.5106218117,34194.5108944715,34194.5111671314,34194.5114397912,34194.511712451,34194.5119851108,34194.5122577706,34194.5125304305,85924.3041433166,34194.5130757501,85924.3057792773,34194.5136210697,34194.5138937296,34194.5141663894,34194.5144390492,34194.514711709,34194.5149843688,34194.5152570287,34194.5155296885,34194.5158023483,34194.5160750081,34194.516347668,34194.5166203278,34194.5168929876,34194.5171656474,34194.5174383072,34194.5177109671,34194.5179836269,34194.5182562867,34194.5185289465,85924.3221388842,34194.5190742662,85924.3237748449,85924.3245928252,12311.9468476693,12311.9471203287,85924.3270467663,85924.3278647466,85924.328682727,85924.3295007073,12311.9484836262,12311.9487562857,12311.9490289452,12311.9493016047,12311.9495742642,-74710.8779095156,12311.9501195832,12311.9503922427,12311.9506649022,12311.9509375617,-74710.883362698,12311.9514828807,12311.9517555402,-74710.8866346074,12311.9523008592,85924.3425883928,85924.3434063732,85924.3442243535,85924.3450423338,12311.9536641566,85924.3466782945,12311.9542094756
12311.9263982067,-74710.7852054153,85924.2656982398,85924.2665162202,-74710.7884773248,-74710.7895679613,12311.9280341637,12311.9283068232,12311.9285794827,12311.9288521422,12311.9291248017,12311.9293974612,85924.2738780434,12311.9299427802,12311.9302154398,12311.9304880993,85924.2771499649,85924.2779679452,12311.9313060778,12311.9315787373,85924.2804218863,85924.2812398667,85924.282057847,85924.2828758274,85924.2836938078,85924.2845117881,85924.2853297684,85924.2861477488,85924.2869657292,12311.9343053323,85924.2886016899,85924.2894196702,85924.2902376506,85924.2910556309,85924.2918736113,85924.2926915916,85924.293509572,85924.2943275523,85924.2951455327,85924.295963513,85924.2967814934,85924.2975994737,85924.2984174541,85924.2992354345,85924.3000534148,85924.3008713952,85924.3016893755,85924.3025073559,85924.3033253362,12311.9397585224,85924.3049612969,12311.9403038414,85924.3065972576,85924.307415238,85924.3082332183,85924.3090511987,85924.309869179,85924.3106871593,85924.3115051397,85924.31232312,85924.3131411004,85924.3139590807,85924.3147770611,85924.3155950414,85924.3164130218,85924.3172310021,85924.3180489825,85924.3188669628,85924.3196849432,85924.3205029235,85924.3213209039,12311.9457570313,85924.3229568645,12311.9463023503,12311.9465750098,-74710.8659125145,-74710.867003151,12311.9473929882,12311.9476656477,12311.9479383072,12311.9482109667,-74710.8724563333,-74710.8735469698,-74710.8746376062,-74710.8757282427,-74710.8768188792,27725.8503982131,-74710.8790001521,-74710.8800907886,-74710.881181425,-74710.8822720615,27725.8531248108,-74710.8844533344,-74710.8855439709,27725.8547607694,-74710.8877252438,12311.9525735187,12311.9528461781,12311.9531188376,12311.9533914971,-74710.8931784261,12311.9539368161,-74710.895359699
-74710.7841147789,27725.8040460506,12311.9269435257,12311.9272161852,27725.8056820093,27725.8062273289,-74710.7906585978,-74710.7917492343,-74710.7928398708,-74710.7939305073,-74710.7950211437,-74710.7961117802,12311.9296701207,-74710.7982930532,-74710.7993836897,-74710.8004743262,12311.9307607588,12311.9310334183,-74710.8037462356,-74710.8048368721,12311.9318513968,12311.9321240563,12311.9323967158,12311.9326693753,12311.9329420348,12311.9332146943,12311.9334873538,12311.9337600133,12311.9340326728,-74710.8157432368,12311.9345779918,12311.9348506513,12311.9351233108,12311.9353959703,12311.9356686298,12311.9359412893,12311.9362139488,12311.9364866083,12311.9367592678,12311.9370319273,12311.9373045868,12311.9375772463,12311.9378499058,12311.9381225653,12311.9383952248,12311.9386678843,12311.9389405438,12311.9392132033,12311.9394858629,-74710.8375559663,12311.9400311819,-74710.8397372393,12311.9405765009,12311.9408491603,12311.9411218198,12311.9413944793,12311.9416671388,12311.9419397983,12311.9422124578,12311.9424851173,12311.9427577768,12311.9430304363,12311.9433030958,12311.9435757553,12311.9438484148,12311.9441210743,12311.9443937338,12311.9446663933,12311.9449390528,12311.9452117123,12311.9454843718,-74710.8615499686,12311.9460296908,-74710.8637312416,-74710.864821878,27725.844399698,27725.8449450176,-74710.8680937874,-74710.8691844239,-74710.8702750604,-74710.8713656968,27725.8476716153,27725.8482169349,27725.8487622544,27725.849307574,27725.8498528935,715168.7299867,27725.8509435326,27725.8514888522,27725.8520341717,27725.8525794912,715168.786959383,27725.8536701303,27725.8542154499,715168.82114299,27725.855306089,-74710.8888158803,-74710.8899065167,-74710.8909971532,-74710.8920877897,27725.8580326867,-74710.8942690626,27725.8591233258
27725.803500731,715167.761449839,-74710.7862960518,-74710.7873866883,-209280.662649737,715167.807028096,27725.8067726484,-209280.664785909,-209280.665497968,-209280.666210028,27725.8089539266,34764.4716496384,-74710.7972024167,-209280.669058275,27725.8111352049,715167.920973716,-74710.8015649627,-74710.8026555991,715167.955157396,-209280.673330669,-74710.8059275086,-74710.8070181451,-74710.8081087815,-74710.809199418,-74710.8102900545,-74710.811380691,-74710.8124713274,-74710.8135619639,-74710.8146526004,-209280.680451386,-74710.8168338733,-74710.8179245098,-74710.8190151463,-74710.8201057828,-74710.8211964192,-74710.8222870557,-74710.8233776922,-74710.8244683286,-74710.8255589651,-74710.8266496016,-74710.8277402381,-74710.8288308745,-74710.829921511,-74710.8310121475,-74710.8321027839,-74710.8331934204,-74710.8342840569,-74710.8353746934,-74710.8364653298,27725.8302213896,-74710.8386466028,27725.8313120287,-74710.8408278757,-74710.8419185122,-74710.8430091487,-74710.8440997851,-74710.8451904216,-74710.8462810581,-74710.8473716945,-74710.848462331,-74710.8495529675,-74710.8506436039,-74710.8517342404,-74710.8528248769,-74710.8539155134,-74710.8550061498,-74710.8560967863,-74710.8571874228,-74710.8582780592,-74710.8593686957,-74710.8604593322,27725.8422184198,-74710.8626406051,27725.8433090589,27725.8438543785,715168.604646767,715168.616041308,27725.8454903371,27725.8460356567,27725.8465809762,27725.8471262958,715168.673014008,715168.684408547,715168.695803085,715168.707197624,715168.718592162,-209280.721040927,715168.741381237,715168.752775774,715168.764170311,715168.775564847,-209280.724601531,715168.798353919,715168.809748455,-209280.726737902,715168.832537525,27725.8558514085,27725.8563967281,27725.8569420476,27725.8574873672,715168.889510194,27725.8585780062,715168.91229926
715167.750055274,-209280.660513571,27725.8045913701,27725.8051366897,34764.4489067815,-209280.663361794,-209280.664073851,34764.4586537418,34764.4619027214,34764.4651516973,-209280.666922089,-242280.11065554,27725.8100445657,34764.4781475651,715167.909579156,-209280.670482403,715167.932368276,715167.943762837,-209280.672618601,34764.4976412583,-209280.674042737,27725.8149524418,-209280.675466876,-209280.676178946,-209280.676891018,-209280.67760309,-209280.678315163,-209280.679027236,-209280.679739311,34764.5301304583,27725.8198603179,27725.8204056375,27725.8209509571,27725.8214962766,27725.8220415962,27725.8225869158,27725.8231322353,27725.8236775549,27725.8242228744,27725.824768194,27725.8253135136,27725.8258588331,27725.8264041527,27725.8269494722,27725.8274947918,27725.8280401114,27725.8285854309,27725.8291307505,27725.82967607,715168.308388588,27725.8307667092,715168.331177687,27725.8318573483,27725.8324026678,27725.8329479874,27725.8334933069,27725.8340386265,27725.8345839461,27725.8351292656,27725.8356745852,27725.8362199047,27725.8367652243,27725.8373105438,27725.8378558634,27725.8384011829,27725.8389465025,27725.8394918221,27725.8400371416,27725.8405824612,27725.8411277807,27725.8416731003,715168.5590686,27725.8427637394,715168.581857684,715168.593252226,-209280.713207665,-209280.713919776,715168.627435848,715168.638830389,715168.650224929,715168.661619468,-209280.717480342,-209280.718192458,-209280.718904574,-209280.719616691,-209280.720328809,34764.7153120227,-209280.721753046,-209280.722465166,-209280.723177287,-209280.723889409,34764.7315554626,-209280.725313654,-209280.726025778,34764.7413014835,-209280.727450028,715168.843932059,715168.855326593,715168.866721127,715168.878115661,34764.7607934284,715168.900904727,-209280.732434926
-209280.659801517,34764.4391597885,-209280.661225625,-209280.661937681,-242280.088528427,34764.4521557719,34764.4554047587,-242280.098011477,-242280.101172493,-242280.104333509,34764.4684006697,-43465.5967932589,-209280.668346212,-242280.11697757,-209280.669770339,34764.4846454772,-209280.671194469,-209280.671906535,34764.4943923185,-242280.135943652,34764.5008901945,-209280.674754806,34764.5073880562,34764.5106369816,34764.5138859034,34764.5171348216,34764.5203837362,34764.5236326472,34764.5268815545,-242280.167553768,-209280.681163462,-209280.681875538,-209280.682587616,715168.126075753,715168.137470307,715168.148864862,715168.160259416,715168.171653969,715168.183048522,715168.194443076,715168.20583763,715168.217232182,715168.228626734,715168.240021285,715168.251415837,715168.262810388,715168.274204939,715168.285599489,715168.296994039,34764.595107777,715168.319783138,34764.6016054296,715168.342572236,715168.353966784,715168.365361332,715168.37675588,715168.388150427,715168.399544974,715168.410939521,715168.422334068,715168.433728614,715168.445123159,715168.456517705,715168.46791225,715168.479306795,715168.49070134,715168.502095884,715168.513490428,715168.524884971,715168.536279514,715168.547674057,-209280.710359229,715168.570463142,-209280.711783446,-209280.712495555,34764.6795761392,34764.6828248738,34764.6860736048,-209280.715344,-209280.716056114,-209280.716768228,34764.6990684931,34764.7023172062,34764.7055659157,34764.7088146217,34764.712063324,-43465.6766444769,34764.7185607179,34764.7218094095,34764.7250580974,34764.7283067818,-43465.6819684969,34764.7348041398,34764.7380528134,-43465.6851629451,34764.7445501499,-209280.728162154,34764.751047472,-209280.729586408,-209280.730298537,-43465.6915519229,-209280.731722796,34764.7672907146
34764.4359107838,-242280.079045375,34764.4424087898,34764.4456577874,-43465.5893413501,-242280.091689444,-242280.094850461,-43465.5925350071,-43465.5935995655,-43465.5946641269,-242280.107494525,-732.464515521088,34764.4748986035,-43465.5989224031,34764.481396523,-242280.123299598,34764.4878944279,34764.491143375,-242280.132782639,-43465.6053099088,-242280.139104665,34764.5041391272,-242280.14542669,-242280.148587702,-242280.151748714,-242280.154909725,-242280.158070736,-242280.161231747,-242280.164392758,-43465.6159559948,34764.5333793585,34764.536628255,34764.539877148,-209280.683299694,-209280.684011773,-209280.684723853,-209280.685435933,-209280.686148014,-209280.686860096,-209280.687572179,-209280.688284262,-209280.688996347,-209280.689708432,34764.5756147327,34764.5788635824,-209280.691844691,-209280.69255678,34764.58861011,34764.5918589453,-43465.637249078,34764.5983566051,-43465.6393784531,34764.6048542506,-209280.697541418,-209280.698253512,-209280.698965607,-209280.699677702,-209280.700389799,-209280.701101896,-209280.701813994,-209280.702526093,-209280.703238192,-209280.703950293,-209280.704662394,-209280.705374495,-209280.706086598,-209280.706798701,34764.6535861327,-209280.70822291,-209280.708935016,-209280.709647122,34764.6665811647,-209280.711071337,34764.6730786591,34764.6763274009,-43465.6649318987,-43465.6659966635,-43465.6670614312,34764.6893223323,34764.6925710562,34764.6958197764,-43465.6713205324,-43465.6723853153,-242280.338247899,-43465.67451489,-43465.675579682,1611.07539673028,-43465.6777092749,-242280.354052869,-43465.6798388798,-43465.6809036868,1611.07402322342,-43465.6830333099,-43465.684098126,1611.07319906824,-43465.6862277672,34764.7477988128,1611.07237487476,34764.7542961277,34764.7575447798,1611.07155064299,34764.7640420733,-43465.6936816063
-242280.075884357,-43465.5861477206,-242280.082206393,-242280.08536741,-732.4469386065,-43465.5904058994,-43465.5914704517,-732.454469544664,-732.456980532483,-732.459491857846,-43465.5957286914,-6.81623122881329,-242280.113816555,-732.469540534427,-242280.120138584,-43465.6010515595,-242280.126460612,-242280.129621626,-43465.6042453169,1611.09379145637,-43465.6063745037,-242280.142265678,-43465.6085037027,-43465.6095683067,-43465.6106329138,-43465.6116975239,-43465.6127621371,-43465.6138267533,-43465.6148913725,1611.09104718804,-242280.170714778,-242280.173875788,-242280.177036797,34764.5431260373,34764.5463749231,34764.5496238052,34764.5528726838,34764.5561215587,34764.55937043,34764.5626192978,34764.5658681619,34764.5691170224,34764.5723658793,-43465.6308610256,-43465.6319256934,34764.5821124285,34764.585361271,-242280.224451905,-43465.636184395,1611.08555737425,-43465.638313764,1611.08500829922,-43465.6404431451,34764.6081030679,34764.6113518816,34764.6146006917,34764.6178494983,34764.6210983012,34764.6243471005,34764.6275958963,34764.6308446884,34764.634093477,34764.6373422619,34764.6405910433,34764.643839821,34764.6470885952,34764.6503373658,-43465.6564138898,34764.6568348961,34764.6600836559,34764.6633324121,-43465.6606728701,34764.6698299137,-43465.6628023784,-43465.663867137,1611.07841807088,1611.07814342484,1611.07786877453,-43465.668126202,-43465.6691909758,-242280.328764914,1611.07677013076,1611.07649545917,-43465.6734501011,1611.07594610324,1611.07567141889,-732.653876827395,1611.07512203742,-43465.6787740758,1611.07457263893,1611.07429793331,-732.66656832397,1611.07374850928,1611.07347379089,-732.674187263468,1611.07292434134,-43465.6872925923,-732.681809233829,-43465.6894222516,-43465.6904870858,-732.689434234813,-43465.6926167631,1611.07100113386
-43465.5850831835,1611.0987300665,-43465.5872122607,-43465.5882768039,-6.81615937692446,1611.0976327168,-732.451958894392,-6.81619016981568,-6.81620043437133,-6.81621069905619,-732.462003520639,-239100.550332237,-43465.5978578295,-6.81625175908652,-43465.5999869798,-732.474566897737,-43465.6021161423,-43465.6031807281,1611.09406585979,-732.484623673962,1611.0935170487,-43465.6074391017,1611.09296822057,1611.09269380013,1611.09241937542,1611.09214494646,1611.09187051324,1611.09159607577,1611.09132163403,-732.509789233943,-43465.6170206201,-43465.6180852485,-43465.6191498799,-242280.180197806,-242280.183358815,-242280.186519824,-242280.189680832,-242280.19284184,-242280.196002848,-242280.199163856,-242280.202324863,-242280.20548587,-43465.6297963608,1611.08720449718,1611.08692998734,-43465.6329903643,-242280.2212909,-43465.6351197151,1611.08583190538,-732.56022154999,1611.08528283887,-732.56527220053,1611.08473375532,-43465.6415078402,-43465.6425725384,-43465.6436372396,-43465.6447019438,-43465.645766651,-43465.6468313612,-43465.6478960745,-43465.6489607908,-43465.6500255102,-43465.6510902326,-43465.652154958,-43465.6532196864,-43465.6542844178,-43465.6553491523,1611.08061508606,-43465.6574786303,-43465.6585433739,-43465.6596081205,1611.07951661252,-43465.6617376227,1611.07896735021,1611.07869271268,-732.625985178143,-732.628519098117,-732.631053355021,1611.07759411997,1611.07731946116,-43465.6702557526,-732.641193751724,-732.64372969313,1611.07622078333,-732.648802586554,-732.651339538553,-6.81700146345566,-732.656414453073,1611.07484734031,-732.661490714904,-732.664029351037,-6.81705283767456,-732.669107633692,-732.671647280193,-6.81708366370227,-732.676727583505,1611.07264961018,-6.81711449085045,1611.07210013509,1611.07182539117,-6.81714531911764,1611.07127589055,-732.694519252349
1611.09900439328,-732.439410706532,1611.09845573546,-732.444428968897,-239100.601506887,-732.449448581672,-6.81617990538928,-239100.57957481,-239100.572264146,-239100.564953496,-6.81622096387019,-3639.05486048772,-732.467027859012,-239100.535711034,-732.472053547356,-6.81627228987546,-732.477080585559,1611.09434025895,-732.482108973734,-6.81631335299867,-732.487138711635,1611.09324263676,-732.492169799315,-732.494685849223,-732.497202236546,-732.499718961272,-732.502236023388,-732.504753422875,-732.50727115973,-6.81641601980069,1611.0907727378,1611.09049828329,1611.09022382453,-43465.6202145143,-43465.6212791518,-43465.6223437923,-43465.6234084358,-43465.6244730824,-43465.625537732,-43465.6266023847,-43465.6276670403,-43465.6287316991,1611.08747900277,-732.545077690728,-732.547600824259,1611.08665547323,-43465.6340550382,1611.08610643225,-732.55769673047,-6.81662139176621,-732.562746706679,-6.81664193176308,-732.56779803153,1611.08445920717,1611.08418465476,1611.08391009809,1611.08363553716,1611.08336097198,1611.08308640254,1611.08281182884,1611.08253725089,1611.08226266869,1611.08198808222,1611.0817134915,1611.08143889652,1611.08116429729,1611.0808896938,-732.605725948837,1611.08034047406,1611.0800658578,1611.07979123729,-732.615852867713,1611.07924198349,-732.620918349018,-732.623451595106,-6.81688845117822,-6.81689872439501,-6.8169089977373,-732.633587948842,-732.636122879571,1611.07704479808,-6.81695009236017,-6.81696036632906,-732.646265971409,-6.81698091464227,-6.81699118898647,-3638.2552213489,-6.81701173804979,-732.65895241558,-6.81703228761263,-6.81704256258123,238179.864181024,-6.81706311289254,-6.81707338823513,238179.837995885,-6.81709393929391,-732.679268240294,238179.811810858,-732.684350564101,-732.686892231099,238179.785625943,-732.691976575233,-6.81716587191669
-732.436902081676,-6.81612858519796,-732.441919668921,-6.81614911288611,-3639.12947628598,-6.81616964109218,-239100.586885488,-3639.09749844642,-3639.08683904667,-3639.07617958696,-239100.557642859,-52500.3887263263,-6.81624149388542,-3639.03354114871,-6.81626202441655,-239100.521089886,-6.81628255546317,-732.479594610895,-6.81630308702483,-239100.491847759,-6.81632361910111,-732.489654086756,-6.81634415169154,-6.81635441817943,-6.81636468479568,-6.81637495154026,-6.81638521841311,-6.81639548541416,-6.81640575254336,-239100.418743415,-732.512307645511,-732.514826394422,-732.517345480666,1611.08994936151,1611.08967489423,1611.0894004227,1611.08912594691,1611.08885146686,1611.08857698256,1611.088302494,1611.08802800118,1611.0877535041,-732.542554894419,-6.8165597748243,-6.81657004399671,-732.550124295011,1611.08638095487,-732.555172248128,-6.81661112195818,-239100.272538903,-6.8166316617012,-239100.257918758,-6.8166522019518,-732.570324199677,-732.572850704953,-732.575377547362,-732.577904726888,-732.580432243524,-732.582960097256,-732.58548828808,-732.588016815985,-732.590545680964,-732.593074883004,-732.595604422098,-732.598134298236,-732.600664511411,-732.603195061615,-6.81680626996797,-732.608257173066,-732.610788734294,-732.613320632512,-6.81684735956705,-732.618385439884,-6.81686790512133,-6.81687817808697,-239100.082481355,-239100.075171637,-239100.067861933,-6.81691927120501,-6.81692954479809,-732.638658147201,-3638.30854109564,-3638.29787726586,-6.81697064042311,-3638.27654942693,-3638.26588541779,-52500.6852099782,-3638.24455722023,-6.81702201276879,238179.881637845,238179.872909428,-3638.20190010785,238179.855452632,238179.846724252,-3638.16990664609,238179.82926753,-6.81710421500998,-3638.13791264657,-6.81712476681525,-6.81713504290434,-3638.10591810933,-6.81715559545511,238179.768169394
-6.81611832154823,-239100.623439089,-6.81613884897727,-239100.608817607,-52500.3610613604,-239100.594196181,-3639.10815778622,-52500.3729176315,-52500.3768697694,-52500.3808219312,-3639.06552006732,-277873.892581116,-239100.543021628,-52500.3966308167,-239100.528400453,-3639.01222156997,-239100.513779333,-6.81629282117964,-239100.49915827,-3638.96958169344,-239100.484537262,-6.81633388533209,-239100.469916309,-239100.462605854,-239100.455295413,-239100.447984985,-239100.440674572,-239100.433364172,-239100.426053787,-3638.86297780824,-6.81642628718607,-6.81643655469947,-6.81644682234082,-732.519864904233,-732.522384665117,-732.524904763306,-732.52742519879,-732.529945971563,-732.532467081614,-732.534988528935,-732.537510313514,-732.540032435344,-6.81654950577918,-239100.316399672,-239100.309089509,-6.81658031329637,-732.55264810297,-6.81660085227716,-239100.279848997,-3638.64975206977,-239100.265228824,-3638.62842817881,-239100.250608706,-6.81666247226733,-6.81667274270958,-6.81668301327855,-6.81669328397415,-6.81670355479633,-6.81671382574504,-6.81672409682021,-6.8167343680218,-6.81674463934975,-6.81675491080401,-6.81676518238451,-6.81677545409121,-6.81678572592406,-6.816795997883,-239100.1409596,-6.81681654217891,-6.81682681451577,-6.81683708697851,-239100.111720366,-6.81685763228134,-239100.097100833,-239100.089791087,-3638.37252281871,-3638.36185934769,-3638.35119581686,-239100.060552243,-239100.053242566,-6.81693981851649,-52500.6654402261,-52500.6693941288,-3638.28721337629,-52500.6773020057,-52500.68125598,-277873.633117073,-52500.6891640002,238179.890366275,-3638.22322878357,-3638.21256447559,-52500.7049803271,-3638.19123568036,-3638.1805711931,-52500.716842823,-3638.15924203933,238179.820539188,-52500.728705534,238179.803082541,238179.794354235,-52500.74056846,238179.776897662,-3638.08458811917
-239100.63074985,-3639.16145358598,-239100.616128341,-3639.14013544593,-277873.916789155,-3639.11881706608,-52500.3689655173,-277873.906414461,-277873.90295617,-277873.899497849,-52500.3847741169,267698.038211955,-3639.04420084818,-277873.885664263,-3639.0228813893,-52500.4045354023,-3639.00156169072,-239100.506468795,-3638.98024175246,-52500.4203448594,-3638.9589215745,-239100.477226778,-3638.93760115687,-3638.92694085821,-3638.91628049964,-3638.90562008117,-3638.89495960278,-3638.8842990645,-3638.87363846631,-52500.4598701703,-239100.411433057,-239100.404122713,-239100.396812383,-6.81645709011005,-6.81646735800713,-6.81647762603198,-6.81648789418455,-6.81649816246481,-6.81650843087268,-6.8165186994081,-6.81652896807103,-6.8165392368614,-239100.323709849,-3638.71372230612,-3638.70306074973,-239100.30177936,-6.8165905827232,-239100.287159104,-3638.66041392548,-52500.5389279433,-3638.63909015422,-52500.5468342452,-3638.61776614357,-239100.243298669,-239100.235988645,-239100.228678635,-239100.221368639,-239100.214058657,-239100.206748688,-239100.199438734,-239100.192128794,-239100.184818867,-239100.177508955,-239100.170199056,-239100.162889171,-239100.1555793,-239100.148269443,-3638.45782843397,-239100.133649771,-239100.126339955,-239100.119030154,-3638.41517610478,-239100.104410593,-3638.39384958136,-3638.38318622995,-52500.6417173116,-52500.645671071,-52500.6496248543,-3638.34053222624,-3638.32986857584,-3638.31920486564,-277873.650419913,-277873.646959405,-52500.6733480553,-277873.640038299,-277873.636577701,267698.290884804,-277873.629656415,-3638.23389303178,-52500.6970721159,-52500.7010262096,-277873.615813486,-52500.7089344685,-52500.7128886338,-277873.605430976,-52500.7207970361,-3638.14857737282,-277873.595048197,-3638.12724786056,-3638.11658301481,-277873.584665149,-3638.09525314411,-52500.7484771967
-3639.17211256602,-52500.3492053036,-3639.15079454593,-52500.3571093176,267698.014629033,-52500.3650134269,-277873.909872723,267698.024736002,267698.028104991,267698.031473979,-277873.896039497,-4523.58703339811,-52500.3926785596,267698.044949928,-52500.4005830976,-277873.878747289,-52500.4084877309,-3638.99090175155,-52500.4163924594,-277873.864912983,-52500.4242972833,-3638.94826139563,-52500.4322022025,-52500.4361546978,-52500.440107217,-52500.44405976,-52500.4480123268,-52500.4519649175,-52500.455917532,-277873.830325116,-3638.85231709023,-3638.84165631233,-3638.83099547452,-239100.389502067,-239100.382191765,-239100.374881477,-239100.367571203,-239100.360260942,-239100.352950696,-239100.345640463,-239100.338330245,-239100.33102004,-3638.72438380264,-52500.51520961,-52500.5191626059,-3638.69239913346,-239100.294469225,-3638.67107572133,-52500.5349748281,-277873.761140388,-52500.5428810823,-277873.754221256,-52500.5507874319,-3638.60710404847,-3638.59644189354,-3638.58577967874,-3638.5751174041,-3638.56445506961,-3638.55379267528,-3638.54313022112,-3638.53246770712,-3638.52180513328,-3638.51114249962,-3638.50047980613,-3638.48981705283,-3638.4791542397,-3638.46849136675,-52500.6100880956,-3638.44716544139,-3638.436502389,-3638.4258392768,-52500.6259025127,-3638.40451287297,-52500.6338098644,-52500.6377635761,-277873.671182335,-277873.667722006,-277873.664261648,-52500.6535786615,-52500.6575324925,-52500.6614863474,-4523.57965339524,267698.277408975,-277873.643498867,267698.28414689,267698.287515847,-4523.57912613484,267698.29425376,-52500.6931180461,-277873.622735011,-277873.619274263,267698.307729581,-277873.612352679,-277873.608891842,267698.317836444,-277873.601970079,-52500.7247512731,267698.327943303,-52500.7326598187,-52500.7366141274,267698.338050159,-52500.7445228163,-277873.577742968
-52500.3452533323,-277873.927163579,-52500.3531572987,-277873.920247326,-4523.5877712208,-277873.913330954,267698.021367013,-4523.58745501521,-4523.58734961196,-4523.58724420803,267698.034842967,-288819.440477921,-277873.889122704,-4523.58682258545,-277873.882205791,267698.0516879,-277873.875288758,-52500.4124400832,-277873.868371605,267698.065163839,-277873.861454331,-52500.428249731,-277873.854536938,-277873.851078196,-277873.847619425,-277873.844160623,-277873.840701791,-277873.83724293,-277873.833784038,267698.098853653,-52500.4638228324,-52500.4677755185,-52500.4717282283,-3638.82033457682,-3638.80967361922,-3638.79901260173,-3638.78835152436,-3638.77769038711,-3638.76702918996,-3638.75636793294,-3638.74570661605,-3638.73504523929,-52500.5112566379,-277873.781897065,-277873.778437694,-52500.5231156257,-3638.68173745733,-52500.5310217368,-277873.764599909,267698.166233154,-277873.757680837,267698.172971095,-277873.750761646,-52500.5547406425,-52500.5586938769,-52500.5626471352,-52500.5666004174,-52500.5705537234,-52500.5745070532,-52500.5784604069,-52500.5824137845,-52500.5863671859,-52500.5903206113,-52500.5942740604,-52500.5982275334,-52500.6021810303,-52500.606134551,-277873.69886389,-52500.6140416641,-52500.6179952564,-52500.6219488726,-277873.685023352,-52500.6298561766,-277873.678102903,-277873.674642634,-4523.58028608791,267698.25719522,-4523.58007519277,-277873.660801259,-277873.65734084,-277873.653880392,NaN,-4523.57954794435,267698.280777933,-4523.57933704079,-4523.57923158811,NaN,-4523.57902068098,-277873.626195728,267698.300991671,267698.304360627,-4523.57859885962,267698.311098536,267698.31446749,-4523.57828248743,267698.321205397,-277873.598509153,-4523.57796610999,-277873.591587211,-277873.588126195,-4523.57764972732,-277873.581204073,267698.344788061
-277873.93062166,267698.004522059,-277873.923705468,267698.011260042,-288819.448506865,267698.017998023,-4523.58756041776,-288819.445065865,-288819.443918873,-288819.442771885,-4523.58713880341,NaN,267698.041580942,-288819.438183972,267698.048318915,-4523.58661177006,267698.055056886,-277873.871830196,267698.061794855,-4523.58619013113,267698.068532822,-277873.85799565,267698.075270788,267698.07863977,267698.082008751,267698.085377733,267698.088746713,267698.092115694,267698.095484674,-4523.58513598675,-277873.826866165,-277873.823407183,-277873.819948172,-52500.475680962,-52500.4796337195,-52500.4835865009,-52500.487539306,-52500.4914921351,-52500.495444988,-52500.4993978647,-52500.5033507652,-52500.5073036896,-277873.785356407,267698.146019321,267698.149388295,-277873.774978293,-52500.5270686693,-277873.768059401,267698.162864183,-4523.58302750041,267698.169602125,-4523.58281663757,267698.176340065,-277873.747302005,-277873.743842334,-277873.740382633,-277873.736922903,-277873.733463142,-277873.730003352,-277873.726543531,-277873.723083681,-277873.7196238,-277873.71616389,-277873.71270395,-277873.70924398,-277873.70578398,-277873.70232395,-4523.58112964412,-277873.695403801,-277873.691943681,-277873.688483531,-4523.58070787091,-277873.681563143,-4523.58049698063,-4523.58039153457,-288819.367079542,-4523.58018064064,-288819.364786111,267698.26393314,267698.267302099,267698.270671058,NaN,NaN,-4523.57944249287,NaN,NaN,NaN,NaN,267698.297622716,-4523.57880977148,-4523.57870431584,NaN,-4523.57849340281,-4523.57838794541,NaN,-4523.57817702886,267698.32457435,NaN,267698.331312255,-4523.57775518879,NaN,267698.34141911,-4523.57743880266
267698.001153067,-4523.58808742015,267698.007891051,-4523.58787662128,NaN,-4523.58766581963,-288819.446212861,NaN,NaN,NaN,-288819.441624901,NaN,-4523.58692799212,NaN,-4523.58671717809,-288819.435890039,-4523.58650636134,267698.05842587,-4523.58629554188,-288819.431302222,-4523.58608471971,267698.071901805,-4523.58587389484,-4523.58576848141,-4523.5856630673,-4523.58555765252,-4523.58545223708,-4523.58534682096,-4523.58524140419,-288819.419832958,267698.102222632,267698.105591611,267698.108960589,-277873.81648913,-277873.813030058,-277873.809570957,-277873.806111825,-277873.802652664,-277873.799193472,-277873.795734251,-277873.792274999,-277873.788815718,267698.142650348,-4523.58366007356,-4523.58355464631,267698.152757267,-277873.771518862,267698.159495212,-4523.58313293087,-288819.396895634,-4523.58292206931,-288819.394601991,-4523.5827112052,267698.179709034,267698.183078003,-4523.58239490428,267698.18981594,267698.193184908,267698.196553875,267698.199922842,267698.203291809,267698.206660775,-4523.58165684676,-4523.58155140747,-4523.58144596757,-4523.58134052704,-4523.58123508589,-288819.37625343,267698.230243527,-4523.58091875874,-4523.58081331513,-288819.371666453,-4523.58060242607,-288819.369372989,-288819.368226264,NaN,-288819.365932825,NaN,-4523.57996974429,-4523.5798642952,-4523.57975884552,NaN,NaN,NaN,NaN,NaN,NaN,NaN,-4523.57891522653,NaN,NaN,NaN,NaN,NaN,NaN,NaN,-4523.57807156972,NaN,-4523.57786064968,NaN,NaN,-4523.57754426528,NaN
-4523.58819281855,-288819.4519479,-4523.58798202106,-288819.449653873,NaN,-288819.447359861,NaN,NaN,NaN,NaN,NaN,NaN,-288819.439330944,NaN,-288819.437037004,NaN,-288819.434743079,-4523.58640095195,-288819.43244917,NaN,-288819.430155278,-4523.58597930761,-288819.427861401,-288819.426714468,-288819.42556754,-288819.424420615,-288819.423273695,-288819.422126779,-288819.420979866,NaN,-4523.58503056865,-4523.58492514988,-4523.58481973046,267698.112329567,267698.115698544,267698.119067521,267698.122436498,267698.125805474,267698.12917445,267698.132543425,267698.1359124,267698.139281374,-4523.58376550017,-288819.403776662,NaN,-4523.58344921841,267698.15612624,-4523.58323836069,NaN,NaN,-288819.39574881,NaN,-288819.393455175,-4523.58260577219,-4523.58250033855,-288819.390014753,-4523.58228946937,-4523.58218403384,-4523.58207859768,-4523.58197316089,-4523.58186772347,-4523.58176228543,-288819.381987243,-288819.380840472,-288819.379693705,-288819.378546943,-288819.377400184,NaN,-4523.58102420174,-288819.373959933,-288819.372813191,NaN,-288819.370519719,NaN,NaN,NaN,NaN,NaN,-288819.363639402,NaN,NaN,NaN,NaN,NaN,NaN,NaN,NaN,NaN,NaN,NaN,NaN,NaN,NaN,NaN,NaN,NaN,NaN,NaN,NaN,NaN,NaN,NaN,NaN
-288819.45309492,NaN,-288819.450800885,NaN,NaN,NaN,NaN,NaN,NaN,NaN,NaN,NaN,NaN,NaN,NaN,NaN,NaN,-288819.433596123,NaN,NaN,NaN,-288819.429008337,NaN,NaN,NaN,NaN,NaN,NaN,NaN,NaN,-288819.418686053,-288819.417539153,-288819.416392257,-4523.58471431037,-4523.58460888963,-4523.58450346824,-4523.58439804618,-4523.58429262348,-4523.58418720011,-4523.5840817761,-4523.58397635144,-4523.58387092613,-288819.404923514,NaN,NaN,-288819.40148297,-4523.58334378988,NaN,NaN,NaN,NaN,NaN,NaN,-288819.392308364,-288819.391161556,NaN,-288819.388867953,-288819.387721158,-288819.386574367,-288819.38542758,-288819.384280797,-288819.383134018,NaN,NaN,NaN,NaN,NaN,NaN,-288819.375106679,NaN,NaN,NaN,NaN,NaN,NaN,NaN,NaN,NaN,NaN,NaN,NaN,NaN,NaN,NaN,NaN,NaN,NaN,NaN,NaN,NaN,NaN,NaN,NaN,NaN,NaN,NaN,NaN,NaN,NaN,NaN,NaN,NaN,NaN
NaN,NaN,NaN,NaN,NaN,NaN,NaN,NaN,NaN,NaN,NaN,NaN,NaN,NaN,NaN,NaN,NaN,NaN,NaN,NaN,NaN,NaN,NaN,NaN,NaN,NaN,NaN,NaN,NaN,NaN,NaN,NaN,NaN,-288819.415245364,-288819.414098476,-288819.412951591,-288819.411804711,-288819.410657835,-288819.409510962,-288819.408364094,-288819.40721723,-288819.40607037,NaN,NaN,NaN,NaN,NaN,NaN,NaN,NaN,NaN,NaN,NaN,NaN,NaN,NaN,NaN,NaN,NaN,NaN,NaN,NaN,NaN,NaN,NaN,NaN,NaN,NaN,NaN,NaN,NaN,NaN,NaN,NaN,NaN,NaN,NaN,NaN,NaN,NaN,NaN,NaN,NaN,NaN,NaN,NaN,NaN,NaN,NaN,NaN,NaN,NaN,NaN,NaN,NaN,NaN,NaN,NaN,NaN,NaN,NaN,NaN,NaN
